=== Run information ===

Scheme:weka.classifiers.trees.J48 -C 0.25 -M 2
Relation:     _home_shagun_politeness_code_politeness_data-weka.filters.unsupervised.attribute.StringToWordVector-R1-W1000-prune-rate-1.0-C-T-I-N0-stemmerweka.core.stemmers.NullStemmer-M10-tokenizerweka.core.tokenizers.AlphabeticTokenizer-weka.filters.unsupervised.attribute.Reorder-R2,3,4,5,6,7,8,9,10,11,12,13,14,15,16,17,18,19,20,21,22,23,24,25,26,27,28,29,30,31,32,33,34,35,36,37,38,39,40,41,42,43,44,45,46,47,48,49,50,51,52,53,54,55,56,57,58,59,60,61,62,63,64,65,66,67,68,69,70,71,72,73,74,75,76,77,78,79,80,81,82,83,84,85,86,87,88,89,90,91,92,93,94,95,96,97,98,99,100,101,102,103,104,105,106,107,108,109,110,111,112,113,114,115,116,117,118,119,120,121,122,123,124,125,126,127,128,129,130,131,132,133,134,135,136,137,138,139,140,141,142,143,144,145,146,147,148,149,150,151,152,153,154,155,156,157,158,159,160,161,162,163,164,165,166,167,168,169,170,171,172,173,174,175,176,177,178,179,180,181,182,183,184,185,186,187,188,189,190,191,192,193,194,195,196,197,198,199,200,201,202,203,204,205,206,207,208,209,210,211,212,213,214,215,216,217,218,219,220,221,222,223,224,225,226,227,228,229,230,231,232,233,234,235,236,237,238,239,240,241,242,243,244,245,246,247,248,249,250,251,252,253,254,255,256,257,258,259,260,261,262,263,264,265,266,267,268,269,270,271,272,273,274,275,276,277,278,279,280,281,282,283,284,285,286,287,288,289,290,291,292,293,294,295,296,297,298,299,300,301,302,303,304,305,306,307,308,309,310,311,312,313,314,315,316,317,318,319,320,321,322,323,324,325,326,327,328,329,330,331,332,333,334,335,336,337,338,339,340,341,342,343,344,345,346,347,348,349,350,351,352,353,354,355,356,357,358,359,360,361,362,363,364,365,366,367,368,369,370,371,372,373,374,375,376,377,378,379,380,381,382,383,384,385,386,387,388,389,390,391,392,393,394,395,396,397,398,399,400,401,402,403,404,405,406,407,408,409,410,411,412,413,414,415,416,417,418,419,420,421,422,423,424,425,426,427,428,429,430,431,432,433,434,435,436,437,438,439,440,441,442,443,444,445,446,447,448,449,450,451,452,453,454,455,456,457,458,459,460,461,462,463,464,465,466,467,468,469,470,471,472,473,474,475,476,1-weka.filters.supervised.attribute.AttributeSelection-Eweka.attributeSelection.InfoGainAttributeEval-Sweka.attributeSelection.Ranker -T -1.7976931348623157E308 -N -1-weka.filters.supervised.attribute.AttributeSelection-Eweka.attributeSelection.InfoGainAttributeEval-Sweka.attributeSelection.Ranker -T 0.0 -N -1
Instances:    2176
Attributes:   113
[list of attributes omitted]
Test mode:5-fold cross-validation

=== Classifier model (full training set) ===

J48 pruned tree
------------------

Why <= 0
|   Thank <= 0
|   |   Thanks <= 0
|   |   |   Hi <= 0
|   |   |   |   help <= 0
|   |   |   |   |   thanks <= 0
|   |   |   |   |   |   mind <= 0
|   |   |   |   |   |   |   could <= 0
|   |   |   |   |   |   |   |   Would <= 0
|   |   |   |   |   |   |   |   |   please <= 0
|   |   |   |   |   |   |   |   |   |   Hey <= 0
|   |   |   |   |   |   |   |   |   |   |   new <= 0
|   |   |   |   |   |   |   |   |   |   |   |   Could <= 0
|   |   |   |   |   |   |   |   |   |   |   |   |   work <= 0
|   |   |   |   |   |   |   |   |   |   |   |   |   |   since <= 0
|   |   |   |   |   |   |   |   |   |   |   |   |   |   |   And <= 0
|   |   |   |   |   |   |   |   |   |   |   |   |   |   |   |   why <= 0
|   |   |   |   |   |   |   |   |   |   |   |   |   |   |   |   |   good <= 0
|   |   |   |   |   |   |   |   |   |   |   |   |   |   |   |   |   |   I <= 0
|   |   |   |   |   |   |   |   |   |   |   |   |   |   |   |   |   |   |   think <= 0
|   |   |   |   |   |   |   |   |   |   |   |   |   |   |   |   |   |   |   |   Do <= 0
|   |   |   |   |   |   |   |   |   |   |   |   |   |   |   |   |   |   |   |   |   for <= 0
|   |   |   |   |   |   |   |   |   |   |   |   |   |   |   |   |   |   |   |   |   |   be <= 0: impolite (369.0/62.0)
|   |   |   |   |   |   |   |   |   |   |   |   |   |   |   |   |   |   |   |   |   |   be > 0
|   |   |   |   |   |   |   |   |   |   |   |   |   |   |   |   |   |   |   |   |   |   |   Can <= 0
|   |   |   |   |   |   |   |   |   |   |   |   |   |   |   |   |   |   |   |   |   |   |   |   you <= 0
|   |   |   |   |   |   |   |   |   |   |   |   |   |   |   |   |   |   |   |   |   |   |   |   |   more <= 0
|   |   |   |   |   |   |   |   |   |   |   |   |   |   |   |   |   |   |   |   |   |   |   |   |   |   You <= 0: impolite (28.0/6.0)
|   |   |   |   |   |   |   |   |   |   |   |   |   |   |   |   |   |   |   |   |   |   |   |   |   |   You > 0: polite (2.0)
|   |   |   |   |   |   |   |   |   |   |   |   |   |   |   |   |   |   |   |   |   |   |   |   |   more > 0: polite (3.0)
|   |   |   |   |   |   |   |   |   |   |   |   |   |   |   |   |   |   |   |   |   |   |   |   you > 0: impolite (11.0)
|   |   |   |   |   |   |   |   |   |   |   |   |   |   |   |   |   |   |   |   |   |   |   Can > 0: polite (7.0/1.0)
|   |   |   |   |   |   |   |   |   |   |   |   |   |   |   |   |   |   |   |   |   for > 0
|   |   |   |   |   |   |   |   |   |   |   |   |   |   |   |   |   |   |   |   |   |   s <= 0
|   |   |   |   |   |   |   |   |   |   |   |   |   |   |   |   |   |   |   |   |   |   |   be <= 0
|   |   |   |   |   |   |   |   |   |   |   |   |   |   |   |   |   |   |   |   |   |   |   |   like <= 0
|   |   |   |   |   |   |   |   |   |   |   |   |   |   |   |   |   |   |   |   |   |   |   |   |   nothing <= 0
|   |   |   |   |   |   |   |   |   |   |   |   |   |   |   |   |   |   |   |   |   |   |   |   |   |   but <= 0
|   |   |   |   |   |   |   |   |   |   |   |   |   |   |   |   |   |   |   |   |   |   |   |   |   |   |   not <= 0
|   |   |   |   |   |   |   |   |   |   |   |   |   |   |   |   |   |   |   |   |   |   |   |   |   |   |   |   re <= 0
|   |   |   |   |   |   |   |   |   |   |   |   |   |   |   |   |   |   |   |   |   |   |   |   |   |   |   |   |   can <= 0
|   |   |   |   |   |   |   |   |   |   |   |   |   |   |   |   |   |   |   |   |   |   |   |   |   |   |   |   |   |   at <= 0
|   |   |   |   |   |   |   |   |   |   |   |   |   |   |   |   |   |   |   |   |   |   |   |   |   |   |   |   |   |   |   you <= 0: impolite (9.0/1.0)
|   |   |   |   |   |   |   |   |   |   |   |   |   |   |   |   |   |   |   |   |   |   |   |   |   |   |   |   |   |   |   you > 0: polite (12.0/4.0)
|   |   |   |   |   |   |   |   |   |   |   |   |   |   |   |   |   |   |   |   |   |   |   |   |   |   |   |   |   |   at > 0: polite (6.0/1.0)
|   |   |   |   |   |   |   |   |   |   |   |   |   |   |   |   |   |   |   |   |   |   |   |   |   |   |   |   |   can > 0: impolite (3.0/1.0)
|   |   |   |   |   |   |   |   |   |   |   |   |   |   |   |   |   |   |   |   |   |   |   |   |   |   |   |   re > 0: polite (2.0)
|   |   |   |   |   |   |   |   |   |   |   |   |   |   |   |   |   |   |   |   |   |   |   |   |   |   |   not > 0: impolite (5.0)
|   |   |   |   |   |   |   |   |   |   |   |   |   |   |   |   |   |   |   |   |   |   |   |   |   |   but > 0: polite (3.0/1.0)
|   |   |   |   |   |   |   |   |   |   |   |   |   |   |   |   |   |   |   |   |   |   |   |   |   nothing > 0: impolite (2.0)
|   |   |   |   |   |   |   |   |   |   |   |   |   |   |   |   |   |   |   |   |   |   |   |   like > 0: polite (5.0/1.0)
|   |   |   |   |   |   |   |   |   |   |   |   |   |   |   |   |   |   |   |   |   |   |   be > 0: impolite (10.0/1.0)
|   |   |   |   |   |   |   |   |   |   |   |   |   |   |   |   |   |   |   |   |   |   s > 0: impolite (14.0)
|   |   |   |   |   |   |   |   |   |   |   |   |   |   |   |   |   |   |   |   Do > 0
|   |   |   |   |   |   |   |   |   |   |   |   |   |   |   |   |   |   |   |   |   not <= 0
|   |   |   |   |   |   |   |   |   |   |   |   |   |   |   |   |   |   |   |   |   |   at <= 0
|   |   |   |   |   |   |   |   |   |   |   |   |   |   |   |   |   |   |   |   |   |   |   Good <= 0
|   |   |   |   |   |   |   |   |   |   |   |   |   |   |   |   |   |   |   |   |   |   |   |   re <= 0
|   |   |   |   |   |   |   |   |   |   |   |   |   |   |   |   |   |   |   |   |   |   |   |   |   the <= 0.361335
|   |   |   |   |   |   |   |   |   |   |   |   |   |   |   |   |   |   |   |   |   |   |   |   |   |   for <= 0: impolite (11.0/2.0)
|   |   |   |   |   |   |   |   |   |   |   |   |   |   |   |   |   |   |   |   |   |   |   |   |   |   for > 0
|   |   |   |   |   |   |   |   |   |   |   |   |   |   |   |   |   |   |   |   |   |   |   |   |   |   |   you <= 0.285681: impolite (3.0/1.0)
|   |   |   |   |   |   |   |   |   |   |   |   |   |   |   |   |   |   |   |   |   |   |   |   |   |   |   you > 0.285681: polite (2.0)
|   |   |   |   |   |   |   |   |   |   |   |   |   |   |   |   |   |   |   |   |   |   |   |   |   the > 0.361335: polite (2.0)
|   |   |   |   |   |   |   |   |   |   |   |   |   |   |   |   |   |   |   |   |   |   |   |   re > 0: polite (2.0)
|   |   |   |   |   |   |   |   |   |   |   |   |   |   |   |   |   |   |   |   |   |   |   Good > 0: polite (2.0)
|   |   |   |   |   |   |   |   |   |   |   |   |   |   |   |   |   |   |   |   |   |   at > 0: polite (3.0)
|   |   |   |   |   |   |   |   |   |   |   |   |   |   |   |   |   |   |   |   |   not > 0: impolite (3.0)
|   |   |   |   |   |   |   |   |   |   |   |   |   |   |   |   |   |   |   think > 0
|   |   |   |   |   |   |   |   |   |   |   |   |   |   |   |   |   |   |   |   What <= 0
|   |   |   |   |   |   |   |   |   |   |   |   |   |   |   |   |   |   |   |   |   Good <= 0
|   |   |   |   |   |   |   |   |   |   |   |   |   |   |   |   |   |   |   |   |   |   be <= 0: impolite (16.0/1.0)
|   |   |   |   |   |   |   |   |   |   |   |   |   |   |   |   |   |   |   |   |   |   be > 0: polite (3.0/1.0)
|   |   |   |   |   |   |   |   |   |   |   |   |   |   |   |   |   |   |   |   |   Good > 0: polite (2.0)
|   |   |   |   |   |   |   |   |   |   |   |   |   |   |   |   |   |   |   |   What > 0: polite (12.0/1.0)
|   |   |   |   |   |   |   |   |   |   |   |   |   |   |   |   |   |   I > 0
|   |   |   |   |   |   |   |   |   |   |   |   |   |   |   |   |   |   |   any <= 0
|   |   |   |   |   |   |   |   |   |   |   |   |   |   |   |   |   |   |   |   think <= 0
|   |   |   |   |   |   |   |   |   |   |   |   |   |   |   |   |   |   |   |   |   Can <= 0
|   |   |   |   |   |   |   |   |   |   |   |   |   |   |   |   |   |   |   |   |   |   what <= 0
|   |   |   |   |   |   |   |   |   |   |   |   |   |   |   |   |   |   |   |   |   |   |   if <= 0
|   |   |   |   |   |   |   |   |   |   |   |   |   |   |   |   |   |   |   |   |   |   |   |   t <= 0
|   |   |   |   |   |   |   |   |   |   |   |   |   |   |   |   |   |   |   |   |   |   |   |   |   can <= 0
|   |   |   |   |   |   |   |   |   |   |   |   |   |   |   |   |   |   |   |   |   |   |   |   |   |   the <= 0.572703
|   |   |   |   |   |   |   |   |   |   |   |   |   |   |   |   |   |   |   |   |   |   |   |   |   |   |   at <= 0
|   |   |   |   |   |   |   |   |   |   |   |   |   |   |   |   |   |   |   |   |   |   |   |   |   |   |   |   Did <= 0
|   |   |   |   |   |   |   |   |   |   |   |   |   |   |   |   |   |   |   |   |   |   |   |   |   |   |   |   |   Wikipedia <= 0
|   |   |   |   |   |   |   |   |   |   |   |   |   |   |   |   |   |   |   |   |   |   |   |   |   |   |   |   |   |   not <= 0
|   |   |   |   |   |   |   |   |   |   |   |   |   |   |   |   |   |   |   |   |   |   |   |   |   |   |   |   |   |   |   but <= 0
|   |   |   |   |   |   |   |   |   |   |   |   |   |   |   |   |   |   |   |   |   |   |   |   |   |   |   |   |   |   |   |   Any <= 0
|   |   |   |   |   |   |   |   |   |   |   |   |   |   |   |   |   |   |   |   |   |   |   |   |   |   |   |   |   |   |   |   |   url <= 0
|   |   |   |   |   |   |   |   |   |   |   |   |   |   |   |   |   |   |   |   |   |   |   |   |   |   |   |   |   |   |   |   |   |   the <= 0
|   |   |   |   |   |   |   |   |   |   |   |   |   |   |   |   |   |   |   |   |   |   |   |   |   |   |   |   |   |   |   |   |   |   |   does <= 0: impolite (48.0/17.0)
|   |   |   |   |   |   |   |   |   |   |   |   |   |   |   |   |   |   |   |   |   |   |   |   |   |   |   |   |   |   |   |   |   |   |   does > 0: polite (3.0)
|   |   |   |   |   |   |   |   |   |   |   |   |   |   |   |   |   |   |   |   |   |   |   |   |   |   |   |   |   |   |   |   |   |   the > 0
|   |   |   |   |   |   |   |   |   |   |   |   |   |   |   |   |   |   |   |   |   |   |   |   |   |   |   |   |   |   |   |   |   |   |   the <= 0.361335: polite (26.0/8.0)
|   |   |   |   |   |   |   |   |   |   |   |   |   |   |   |   |   |   |   |   |   |   |   |   |   |   |   |   |   |   |   |   |   |   |   the > 0.361335
|   |   |   |   |   |   |   |   |   |   |   |   |   |   |   |   |   |   |   |   |   |   |   |   |   |   |   |   |   |   |   |   |   |   |   |   Do <= 0: impolite (10.0/1.0)
|   |   |   |   |   |   |   |   |   |   |   |   |   |   |   |   |   |   |   |   |   |   |   |   |   |   |   |   |   |   |   |   |   |   |   |   Do > 0: polite (2.0)
|   |   |   |   |   |   |   |   |   |   |   |   |   |   |   |   |   |   |   |   |   |   |   |   |   |   |   |   |   |   |   |   |   url > 0
|   |   |   |   |   |   |   |   |   |   |   |   |   |   |   |   |   |   |   |   |   |   |   |   |   |   |   |   |   |   |   |   |   |   I <= 0.459742
|   |   |   |   |   |   |   |   |   |   |   |   |   |   |   |   |   |   |   |   |   |   |   |   |   |   |   |   |   |   |   |   |   |   |   url <= 0.93588: impolite (21.0/2.0)
|   |   |   |   |   |   |   |   |   |   |   |   |   |   |   |   |   |   |   |   |   |   |   |   |   |   |   |   |   |   |   |   |   |   |   url > 0.93588: polite (3.0/1.0)
|   |   |   |   |   |   |   |   |   |   |   |   |   |   |   |   |   |   |   |   |   |   |   |   |   |   |   |   |   |   |   |   |   |   I > 0.459742: polite (4.0)
|   |   |   |   |   |   |   |   |   |   |   |   |   |   |   |   |   |   |   |   |   |   |   |   |   |   |   |   |   |   |   |   Any > 0: polite (5.0/1.0)
|   |   |   |   |   |   |   |   |   |   |   |   |   |   |   |   |   |   |   |   |   |   |   |   |   |   |   |   |   |   |   but > 0: impolite (10.0/1.0)
|   |   |   |   |   |   |   |   |   |   |   |   |   |   |   |   |   |   |   |   |   |   |   |   |   |   |   |   |   |   not > 0
|   |   |   |   |   |   |   |   |   |   |   |   |   |   |   |   |   |   |   |   |   |   |   |   |   |   |   |   |   |   |   but <= 0: impolite (21.0/5.0)
|   |   |   |   |   |   |   |   |   |   |   |   |   |   |   |   |   |   |   |   |   |   |   |   |   |   |   |   |   |   |   but > 0: polite (3.0/1.0)
|   |   |   |   |   |   |   |   |   |   |   |   |   |   |   |   |   |   |   |   |   |   |   |   |   |   |   |   |   Wikipedia > 0: impolite (7.0)
|   |   |   |   |   |   |   |   |   |   |   |   |   |   |   |   |   |   |   |   |   |   |   |   |   |   |   |   Did > 0: impolite (8.0)
|   |   |   |   |   |   |   |   |   |   |   |   |   |   |   |   |   |   |   |   |   |   |   |   |   |   |   at > 0
|   |   |   |   |   |   |   |   |   |   |   |   |   |   |   |   |   |   |   |   |   |   |   |   |   |   |   |   given <= 0: polite (12.0/3.0)
|   |   |   |   |   |   |   |   |   |   |   |   |   |   |   |   |   |   |   |   |   |   |   |   |   |   |   |   given > 0: impolite (2.0)
|   |   |   |   |   |   |   |   |   |   |   |   |   |   |   |   |   |   |   |   |   |   |   |   |   |   the > 0.572703
|   |   |   |   |   |   |   |   |   |   |   |   |   |   |   |   |   |   |   |   |   |   |   |   |   |   |   So <= 0: polite (22.0/6.0)
|   |   |   |   |   |   |   |   |   |   |   |   |   |   |   |   |   |   |   |   |   |   |   |   |   |   |   So > 0: impolite (2.0)
|   |   |   |   |   |   |   |   |   |   |   |   |   |   |   |   |   |   |   |   |   |   |   |   |   can > 0: polite (20.0/5.0)
|   |   |   |   |   |   |   |   |   |   |   |   |   |   |   |   |   |   |   |   |   |   |   |   t > 0
|   |   |   |   |   |   |   |   |   |   |   |   |   |   |   |   |   |   |   |   |   |   |   |   |   on <= 0
|   |   |   |   |   |   |   |   |   |   |   |   |   |   |   |   |   |   |   |   |   |   |   |   |   |   sorry <= 0
|   |   |   |   |   |   |   |   |   |   |   |   |   |   |   |   |   |   |   |   |   |   |   |   |   |   |   I <= 0.919484: impolite (57.0/10.0)
|   |   |   |   |   |   |   |   |   |   |   |   |   |   |   |   |   |   |   |   |   |   |   |   |   |   |   I > 0.919484: polite (2.0)
|   |   |   |   |   |   |   |   |   |   |   |   |   |   |   |   |   |   |   |   |   |   |   |   |   |   sorry > 0: polite (2.0)
|   |   |   |   |   |   |   |   |   |   |   |   |   |   |   |   |   |   |   |   |   |   |   |   |   on > 0
|   |   |   |   |   |   |   |   |   |   |   |   |   |   |   |   |   |   |   |   |   |   |   |   |   |   but <= 0: impolite (16.0/5.0)
|   |   |   |   |   |   |   |   |   |   |   |   |   |   |   |   |   |   |   |   |   |   |   |   |   |   but > 0: polite (4.0)
|   |   |   |   |   |   |   |   |   |   |   |   |   |   |   |   |   |   |   |   |   |   |   if > 0
|   |   |   |   |   |   |   |   |   |   |   |   |   |   |   |   |   |   |   |   |   |   |   |   did <= 0
|   |   |   |   |   |   |   |   |   |   |   |   |   |   |   |   |   |   |   |   |   |   |   |   |   really <= 0: polite (35.0/9.0)
|   |   |   |   |   |   |   |   |   |   |   |   |   |   |   |   |   |   |   |   |   |   |   |   |   really > 0: impolite (2.0)
|   |   |   |   |   |   |   |   |   |   |   |   |   |   |   |   |   |   |   |   |   |   |   |   did > 0: impolite (2.0)
|   |   |   |   |   |   |   |   |   |   |   |   |   |   |   |   |   |   |   |   |   |   what > 0
|   |   |   |   |   |   |   |   |   |   |   |   |   |   |   |   |   |   |   |   |   |   |   at <= 0
|   |   |   |   |   |   |   |   |   |   |   |   |   |   |   |   |   |   |   |   |   |   |   |   mean <= 0
|   |   |   |   |   |   |   |   |   |   |   |   |   |   |   |   |   |   |   |   |   |   |   |   |   thoughts <= 0: impolite (35.0/4.0)
|   |   |   |   |   |   |   |   |   |   |   |   |   |   |   |   |   |   |   |   |   |   |   |   |   thoughts > 0: polite (2.0)
|   |   |   |   |   |   |   |   |   |   |   |   |   |   |   |   |   |   |   |   |   |   |   |   mean > 0
|   |   |   |   |   |   |   |   |   |   |   |   |   |   |   |   |   |   |   |   |   |   |   |   |   I <= 0.459742: impolite (4.0/1.0)
|   |   |   |   |   |   |   |   |   |   |   |   |   |   |   |   |   |   |   |   |   |   |   |   |   I > 0.459742: polite (2.0)
|   |   |   |   |   |   |   |   |   |   |   |   |   |   |   |   |   |   |   |   |   |   |   at > 0: polite (3.0/1.0)
|   |   |   |   |   |   |   |   |   |   |   |   |   |   |   |   |   |   |   |   |   Can > 0
|   |   |   |   |   |   |   |   |   |   |   |   |   |   |   |   |   |   |   |   |   |   edit <= 0
|   |   |   |   |   |   |   |   |   |   |   |   |   |   |   |   |   |   |   |   |   |   |   I <= 0.459742
|   |   |   |   |   |   |   |   |   |   |   |   |   |   |   |   |   |   |   |   |   |   |   |   you <= 0: impolite (3.0/1.0)
|   |   |   |   |   |   |   |   |   |   |   |   |   |   |   |   |   |   |   |   |   |   |   |   you > 0: polite (13.0)
|   |   |   |   |   |   |   |   |   |   |   |   |   |   |   |   |   |   |   |   |   |   |   I > 0.459742: impolite (6.0/1.0)
|   |   |   |   |   |   |   |   |   |   |   |   |   |   |   |   |   |   |   |   |   |   edit > 0: impolite (2.0)
|   |   |   |   |   |   |   |   |   |   |   |   |   |   |   |   |   |   |   |   think > 0
|   |   |   |   |   |   |   |   |   |   |   |   |   |   |   |   |   |   |   |   |   edit <= 0
|   |   |   |   |   |   |   |   |   |   |   |   |   |   |   |   |   |   |   |   |   |   url <= 0
|   |   |   |   |   |   |   |   |   |   |   |   |   |   |   |   |   |   |   |   |   |   |   Can <= 0
|   |   |   |   |   |   |   |   |   |   |   |   |   |   |   |   |   |   |   |   |   |   |   |   who <= 0
|   |   |   |   |   |   |   |   |   |   |   |   |   |   |   |   |   |   |   |   |   |   |   |   |   add <= 0
|   |   |   |   |   |   |   |   |   |   |   |   |   |   |   |   |   |   |   |   |   |   |   |   |   |   the <= 0: impolite (6.0)
|   |   |   |   |   |   |   |   |   |   |   |   |   |   |   |   |   |   |   |   |   |   |   |   |   |   the > 0: polite (17.0/3.0)
|   |   |   |   |   |   |   |   |   |   |   |   |   |   |   |   |   |   |   |   |   |   |   |   |   add > 0: polite (3.0)
|   |   |   |   |   |   |   |   |   |   |   |   |   |   |   |   |   |   |   |   |   |   |   |   who > 0: impolite (2.0)
|   |   |   |   |   |   |   |   |   |   |   |   |   |   |   |   |   |   |   |   |   |   |   Can > 0: impolite (2.0)
|   |   |   |   |   |   |   |   |   |   |   |   |   |   |   |   |   |   |   |   |   |   url > 0: polite (11.0)
|   |   |   |   |   |   |   |   |   |   |   |   |   |   |   |   |   |   |   |   |   edit > 0: impolite (4.0)
|   |   |   |   |   |   |   |   |   |   |   |   |   |   |   |   |   |   |   any > 0
|   |   |   |   |   |   |   |   |   |   |   |   |   |   |   |   |   |   |   |   at <= 0
|   |   |   |   |   |   |   |   |   |   |   |   |   |   |   |   |   |   |   |   |   what <= 0
|   |   |   |   |   |   |   |   |   |   |   |   |   |   |   |   |   |   |   |   |   |   be <= 0
|   |   |   |   |   |   |   |   |   |   |   |   |   |   |   |   |   |   |   |   |   |   |   any <= 1.804844
|   |   |   |   |   |   |   |   |   |   |   |   |   |   |   |   |   |   |   |   |   |   |   |   you <= 0.285681
|   |   |   |   |   |   |   |   |   |   |   |   |   |   |   |   |   |   |   |   |   |   |   |   |   like <= 0
|   |   |   |   |   |   |   |   |   |   |   |   |   |   |   |   |   |   |   |   |   |   |   |   |   |   you <= 0
|   |   |   |   |   |   |   |   |   |   |   |   |   |   |   |   |   |   |   |   |   |   |   |   |   |   |   the <= 0: impolite (3.0)
|   |   |   |   |   |   |   |   |   |   |   |   |   |   |   |   |   |   |   |   |   |   |   |   |   |   |   the > 0: polite (4.0/1.0)
|   |   |   |   |   |   |   |   |   |   |   |   |   |   |   |   |   |   |   |   |   |   |   |   |   |   you > 0: polite (10.0/1.0)
|   |   |   |   |   |   |   |   |   |   |   |   |   |   |   |   |   |   |   |   |   |   |   |   |   like > 0: impolite (3.0/1.0)
|   |   |   |   |   |   |   |   |   |   |   |   |   |   |   |   |   |   |   |   |   |   |   |   you > 0.285681: impolite (2.0)
|   |   |   |   |   |   |   |   |   |   |   |   |   |   |   |   |   |   |   |   |   |   |   any > 1.804844: impolite (2.0)
|   |   |   |   |   |   |   |   |   |   |   |   |   |   |   |   |   |   |   |   |   |   be > 0: polite (7.0)
|   |   |   |   |   |   |   |   |   |   |   |   |   |   |   |   |   |   |   |   |   what > 0: impolite (3.0)
|   |   |   |   |   |   |   |   |   |   |   |   |   |   |   |   |   |   |   |   at > 0: polite (6.0)
|   |   |   |   |   |   |   |   |   |   |   |   |   |   |   |   |   good > 0
|   |   |   |   |   |   |   |   |   |   |   |   |   |   |   |   |   |   t <= 0
|   |   |   |   |   |   |   |   |   |   |   |   |   |   |   |   |   |   |   really <= 0
|   |   |   |   |   |   |   |   |   |   |   |   |   |   |   |   |   |   |   |   no <= 0: polite (33.0/7.0)
|   |   |   |   |   |   |   |   |   |   |   |   |   |   |   |   |   |   |   |   no > 0: impolite (2.0)
|   |   |   |   |   |   |   |   |   |   |   |   |   |   |   |   |   |   |   really > 0: impolite (2.0)
|   |   |   |   |   |   |   |   |   |   |   |   |   |   |   |   |   |   t > 0: impolite (3.0)
|   |   |   |   |   |   |   |   |   |   |   |   |   |   |   |   why > 0
|   |   |   |   |   |   |   |   |   |   |   |   |   |   |   |   |   Can <= 0: impolite (101.0/12.0)
|   |   |   |   |   |   |   |   |   |   |   |   |   |   |   |   |   Can > 0
|   |   |   |   |   |   |   |   |   |   |   |   |   |   |   |   |   |   but <= 0: impolite (2.0)
|   |   |   |   |   |   |   |   |   |   |   |   |   |   |   |   |   |   but > 0: polite (2.0)
|   |   |   |   |   |   |   |   |   |   |   |   |   |   |   And > 0
|   |   |   |   |   |   |   |   |   |   |   |   |   |   |   |   the <= 0.722671: impolite (46.0/2.0)
|   |   |   |   |   |   |   |   |   |   |   |   |   |   |   |   the > 0.722671: polite (3.0/1.0)
|   |   |   |   |   |   |   |   |   |   |   |   |   |   since > 0
|   |   |   |   |   |   |   |   |   |   |   |   |   |   |   Do <= 0
|   |   |   |   |   |   |   |   |   |   |   |   |   |   |   |   be <= 0
|   |   |   |   |   |   |   |   |   |   |   |   |   |   |   |   |   I <= 0.459742: impolite (9.0/1.0)
|   |   |   |   |   |   |   |   |   |   |   |   |   |   |   |   |   I > 0.459742: polite (3.0)
|   |   |   |   |   |   |   |   |   |   |   |   |   |   |   |   be > 0: polite (8.0/1.0)
|   |   |   |   |   |   |   |   |   |   |   |   |   |   |   Do > 0: polite (5.0)
|   |   |   |   |   |   |   |   |   |   |   |   |   work > 0
|   |   |   |   |   |   |   |   |   |   |   |   |   |   not <= 0
|   |   |   |   |   |   |   |   |   |   |   |   |   |   |   t <= 0: polite (32.0/5.0)
|   |   |   |   |   |   |   |   |   |   |   |   |   |   |   t > 0: impolite (4.0)
|   |   |   |   |   |   |   |   |   |   |   |   |   |   not > 0: impolite (5.0)
|   |   |   |   |   |   |   |   |   |   |   |   Could > 0
|   |   |   |   |   |   |   |   |   |   |   |   |   not <= 0: polite (32.0/7.0)
|   |   |   |   |   |   |   |   |   |   |   |   |   not > 0
|   |   |   |   |   |   |   |   |   |   |   |   |   |   look <= 0: impolite (10.0/2.0)
|   |   |   |   |   |   |   |   |   |   |   |   |   |   look > 0: polite (2.0)
|   |   |   |   |   |   |   |   |   |   |   new > 0
|   |   |   |   |   |   |   |   |   |   |   |   all <= 0
|   |   |   |   |   |   |   |   |   |   |   |   |   t <= 0
|   |   |   |   |   |   |   |   |   |   |   |   |   |   Did <= 0: polite (19.0/1.0)
|   |   |   |   |   |   |   |   |   |   |   |   |   |   Did > 0: impolite (3.0/1.0)
|   |   |   |   |   |   |   |   |   |   |   |   |   t > 0: impolite (4.0/1.0)
|   |   |   |   |   |   |   |   |   |   |   |   all > 0: impolite (2.0)
|   |   |   |   |   |   |   |   |   |   Hey > 0
|   |   |   |   |   |   |   |   |   |   |   edit <= 0
|   |   |   |   |   |   |   |   |   |   |   |   I <= 0
|   |   |   |   |   |   |   |   |   |   |   |   |   s <= 0: impolite (4.0)
|   |   |   |   |   |   |   |   |   |   |   |   |   s > 0: polite (2.0)
|   |   |   |   |   |   |   |   |   |   |   |   I > 0: polite (17.0/1.0)
|   |   |   |   |   |   |   |   |   |   |   edit > 0: impolite (2.0)
|   |   |   |   |   |   |   |   |   please > 0
|   |   |   |   |   |   |   |   |   |   s <= 0
|   |   |   |   |   |   |   |   |   |   |   did <= 0
|   |   |   |   |   |   |   |   |   |   |   |   cannot <= 0
|   |   |   |   |   |   |   |   |   |   |   |   |   does <= 0: polite (45.0/3.0)
|   |   |   |   |   |   |   |   |   |   |   |   |   does > 0: impolite (2.0)
|   |   |   |   |   |   |   |   |   |   |   |   cannot > 0: impolite (2.0)
|   |   |   |   |   |   |   |   |   |   |   did > 0: impolite (3.0/1.0)
|   |   |   |   |   |   |   |   |   |   s > 0: impolite (4.0/1.0)
|   |   |   |   |   |   |   |   Would > 0
|   |   |   |   |   |   |   |   |   not <= 0
|   |   |   |   |   |   |   |   |   |   please <= 0: polite (48.0/6.0)
|   |   |   |   |   |   |   |   |   |   please > 0
|   |   |   |   |   |   |   |   |   |   |   you <= 0.285681: polite (4.0/1.0)
|   |   |   |   |   |   |   |   |   |   |   you > 0.285681: impolite (3.0)
|   |   |   |   |   |   |   |   |   not > 0
|   |   |   |   |   |   |   |   |   |   the <= 0.361335: impolite (3.0)
|   |   |   |   |   |   |   |   |   |   the > 0.361335: polite (3.0/1.0)
|   |   |   |   |   |   |   could > 0
|   |   |   |   |   |   |   |   but <= 0
|   |   |   |   |   |   |   |   |   chance <= 0
|   |   |   |   |   |   |   |   |   |   s <= 0
|   |   |   |   |   |   |   |   |   |   |   say <= 0
|   |   |   |   |   |   |   |   |   |   |   |   I <= 0
|   |   |   |   |   |   |   |   |   |   |   |   |   be <= 0
|   |   |   |   |   |   |   |   |   |   |   |   |   |   you <= 0: impolite (3.0)
|   |   |   |   |   |   |   |   |   |   |   |   |   |   you > 0: polite (9.0/1.0)
|   |   |   |   |   |   |   |   |   |   |   |   |   be > 0: impolite (2.0)
|   |   |   |   |   |   |   |   |   |   |   |   I > 0: polite (41.0/6.0)
|   |   |   |   |   |   |   |   |   |   |   say > 0: impolite (3.0/1.0)
|   |   |   |   |   |   |   |   |   |   s > 0
|   |   |   |   |   |   |   |   |   |   |   for <= 0: impolite (5.0)
|   |   |   |   |   |   |   |   |   |   |   for > 0: polite (3.0/1.0)
|   |   |   |   |   |   |   |   |   chance > 0: polite (6.0)
|   |   |   |   |   |   |   |   but > 0: polite (17.0)
|   |   |   |   |   |   mind > 0
|   |   |   |   |   |   |   why <= 0: polite (28.0/3.0)
|   |   |   |   |   |   |   why > 0: impolite (2.0)
|   |   |   |   |   thanks > 0
|   |   |   |   |   |   But <= 0: polite (27.0/1.0)
|   |   |   |   |   |   But > 0: impolite (2.0)
|   |   |   |   help > 0
|   |   |   |   |   why <= 0: polite (77.0/3.0)
|   |   |   |   |   why > 0: impolite (4.0/1.0)
|   |   |   Hi > 0
|   |   |   |   why <= 0: polite (119.0/7.0)
|   |   |   |   why > 0
|   |   |   |   |   please <= 0: impolite (5.0/1.0)
|   |   |   |   |   please > 0: polite (2.0)
|   |   Thanks > 0: polite (130.0/7.0)
|   Thank > 0: polite (43.0)
Why > 0: impolite (118.0/4.0)

Number of Leaves  :     139

Size of the tree :  277


Time taken to build model: 4.81 seconds

=== Stratified cross-validation ===
=== Summary ===

Correctly Classified Instances        1578               72.5184 %
Incorrectly Classified Instances       598               27.4816 %
Kappa statistic                          0.4504
Mean absolute error                      0.3194
Root mean squared error                  0.4576
Relative absolute error                 63.8716 %
Root relative squared error             91.5236 %
Total Number of Instances             2176     

=== Detailed Accuracy By Class ===

               TP Rate   FP Rate   Precision   Recall  F-Measure   ROC Area  Class
                 0.693     0.243      0.741     0.693     0.716      0.768    polite
                 0.757     0.307      0.712     0.757     0.734      0.768    impolite
Weighted Avg.    0.725     0.275      0.726     0.725     0.725      0.768

=== Confusion Matrix ===

   a   b   <-- classified as
 754 334 |   a = polite
 264 824 |   b = impolite


